digraph Tree {
node [shape=box, style="filled, rounded", color="black", fontname="helvetica"] ;
edge [fontname="helvetica"] ;
0 [label=<cp &le; 0.5<br/>gini = 0.5<br/>samples = 1025<br/>value = [499, 526]<br/>class = 1>, fillcolor="#f5fafe"] ;
1 [label=<ca &le; 0.5<br/>gini = 0.37<br/>samples = 497<br/>value = [375, 122]<br/>class = 0>, fillcolor="#edaa79"] ;
0 -> 1 [labeldistance=2.5, labelangle=45, headlabel="True"] ;
2 [label=<thal &le; 2.5<br/>gini = 0.5<br/>samples = 219<br/>value = [112, 107]<br/>class = 0>, fillcolor="#fef9f6"] ;
1 -> 2 ;
3 [label=<exang &le; 0.5<br/>gini = 0.389<br/>samples = 125<br/>value = [33, 92]<br/>class = 1>, fillcolor="#80c0ee"] ;
2 -> 3 ;
4 [label=<thalach &le; 96.5<br/>gini = 0.182<br/>samples = 79<br/>value = [8, 71]<br/>class = 1>, fillcolor="#4fa8e8"] ;
3 -> 4 ;
5 [label=<gini = 0.0<br/>samples = 4<br/>value = [4, 0]<br/>class = 0>, fillcolor="#e58139"] ;
4 -> 5 ;
6 [label=<chol &le; 316.5<br/>gini = 0.101<br/>samples = 75<br/>value = [4, 71]<br/>class = 1>, fillcolor="#44a3e6"] ;
4 -> 6 ;
7 [label=<gini = 0.0<br/>samples = 68<br/>value = [0, 68]<br/>class = 1>, fillcolor="#399de5"] ;
6 -> 7 ;
8 [label=<trestbps &le; 135.0<br/>gini = 0.49<br/>samples = 7<br/>value = [4, 3]<br/>class = 0>, fillcolor="#f8e0ce"] ;
6 -> 8 ;
9 [label=<gini = 0.0<br/>samples = 4<br/>value = [4, 0]<br/>class = 0>, fillcolor="#e58139"] ;
8 -> 9 ;
10 [label=<gini = 0.0<br/>samples = 3<br/>value = [0, 3]<br/>class = 1>, fillcolor="#399de5"] ;
8 -> 10 ;
11 [label=<restecg &le; 0.5<br/>gini = 0.496<br/>samples = 46<br/>value = [25, 21]<br/>class = 0>, fillcolor="#fbebdf"] ;
3 -> 11 ;
12 [label=<gini = 0.0<br/>samples = 12<br/>value = [0, 12]<br/>class = 1>, fillcolor="#399de5"] ;
11 -> 12 ;
13 [label=<slope &le; 1.5<br/>gini = 0.389<br/>samples = 34<br/>value = [25, 9]<br/>class = 0>, fillcolor="#eeae80"] ;
11 -> 13 ;
14 [label=<trestbps &le; 115.0<br/>gini = 0.191<br/>samples = 28<br/>value = [25, 3]<br/>class = 0>, fillcolor="#e89051"] ;
13 -> 14 ;
15 [label=<gini = 0.0<br/>samples = 3<br/>value = [0, 3]<br/>class = 1>, fillcolor="#399de5"] ;
14 -> 15 ;
16 [label=<gini = 0.0<br/>samples = 25<br/>value = [25, 0]<br/>class = 0>, fillcolor="#e58139"] ;
14 -> 16 ;
17 [label=<gini = 0.0<br/>samples = 6<br/>value = [0, 6]<br/>class = 1>, fillcolor="#399de5"] ;
13 -> 17 ;
18 [label=<oldpeak &le; 0.65<br/>gini = 0.268<br/>samples = 94<br/>value = [79, 15]<br/>class = 0>, fillcolor="#ea995f"] ;
2 -> 18 ;
19 [label=<age &le; 42.0<br/>gini = 0.499<br/>samples = 31<br/>value = [16, 15]<br/>class = 0>, fillcolor="#fdf7f3"] ;
18 -> 19 ;
20 [label=<gini = 0.0<br/>samples = 10<br/>value = [10, 0]<br/>class = 0>, fillcolor="#e58139"] ;
19 -> 20 ;
21 [label=<chol &le; 237.5<br/>gini = 0.408<br/>samples = 21<br/>value = [6, 15]<br/>class = 1>, fillcolor="#88c4ef"] ;
19 -> 21 ;
22 [label=<gini = 0.0<br/>samples = 15<br/>value = [0, 15]<br/>class = 1>, fillcolor="#399de5"] ;
21 -> 22 ;
23 [label=<gini = 0.0<br/>samples = 6<br/>value = [6, 0]<br/>class = 0>, fillcolor="#e58139"] ;
21 -> 23 ;
24 [label=<gini = 0.0<br/>samples = 63<br/>value = [63, 0]<br/>class = 0>, fillcolor="#e58139"] ;
18 -> 24 ;
25 [label=<trestbps &le; 109.0<br/>gini = 0.102<br/>samples = 278<br/>value = [263, 15]<br/>class = 0>, fillcolor="#e68844"] ;
1 -> 25 ;
26 [label=<chol &le; 233.5<br/>gini = 0.457<br/>samples = 17<br/>value = [11, 6]<br/>class = 0>, fillcolor="#f3c6a5"] ;
25 -> 26 ;
27 [label=<gini = 0.0<br/>samples = 6<br/>value = [0, 6]<br/>class = 1>, fillcolor="#399de5"] ;
26 -> 27 ;
28 [label=<gini = 0.0<br/>samples = 11<br/>value = [11, 0]<br/>class = 0>, fillcolor="#e58139"] ;
26 -> 28 ;
29 [label=<chol &le; 301.5<br/>gini = 0.067<br/>samples = 261<br/>value = [252, 9]<br/>class = 0>, fillcolor="#e68640"] ;
25 -> 29 ;
30 [label=<thalach &le; 105.5<br/>gini = 0.027<br/>samples = 218<br/>value = [215, 3]<br/>class = 0>, fillcolor="#e5833c"] ;
29 -> 30 ;
31 [label=<oldpeak &le; 0.6<br/>gini = 0.198<br/>samples = 27<br/>value = [24, 3]<br/>class = 0>, fillcolor="#e89152"] ;
30 -> 31 ;
32 [label=<gini = 0.0<br/>samples = 3<br/>value = [0, 3]<br/>class = 1>, fillcolor="#399de5"] ;
31 -> 32 ;
33 [label=<gini = 0.0<br/>samples = 24<br/>value = [24, 0]<br/>class = 0>, fillcolor="#e58139"] ;
31 -> 33 ;
34 [label=<gini = 0.0<br/>samples = 191<br/>value = [191, 0]<br/>class = 0>, fillcolor="#e58139"] ;
30 -> 34 ;
35 [label=<chol &le; 303.5<br/>gini = 0.24<br/>samples = 43<br/>value = [37, 6]<br/>class = 0>, fillcolor="#e99559"] ;
29 -> 35 ;
36 [label=<gini = 0.0<br/>samples = 6<br/>value = [0, 6]<br/>class = 1>, fillcolor="#399de5"] ;
35 -> 36 ;
37 [label=<gini = 0.0<br/>samples = 37<br/>value = [37, 0]<br/>class = 0>, fillcolor="#e58139"] ;
35 -> 37 ;
38 [label=<age &le; 56.5<br/>gini = 0.359<br/>samples = 528<br/>value = [124, 404]<br/>class = 1>, fillcolor="#76bbed"] ;
0 -> 38 [labeldistance=2.5, labelangle=-45, headlabel="False"] ;
39 [label=<oldpeak &le; 3.55<br/>gini = 0.2<br/>samples = 320<br/>value = [36, 284]<br/>class = 1>, fillcolor="#52a9e8"] ;
38 -> 39 ;
40 [label=<thalach &le; 142.5<br/>gini = 0.168<br/>samples = 313<br/>value = [29, 284]<br/>class = 1>, fillcolor="#4da7e8"] ;
39 -> 40 ;
41 [label=<ca &le; 2.0<br/>gini = 0.482<br/>samples = 37<br/>value = [15, 22]<br/>class = 1>, fillcolor="#c0e0f7"] ;
40 -> 41 ;
42 [label=<fbs &le; 0.5<br/>gini = 0.366<br/>samples = 29<br/>value = [7, 22]<br/>class = 1>, fillcolor="#78bced"] ;
41 -> 42 ;
43 [label=<thal &le; 2.5<br/>gini = 0.211<br/>samples = 25<br/>value = [3, 22]<br/>class = 1>, fillcolor="#54aae9"] ;
42 -> 43 ;
44 [label=<gini = 0.0<br/>samples = 22<br/>value = [0, 22]<br/>class = 1>, fillcolor="#399de5"] ;
43 -> 44 ;
45 [label=<gini = 0.0<br/>samples = 3<br/>value = [3, 0]<br/>class = 0>, fillcolor="#e58139"] ;
43 -> 45 ;
46 [label=<gini = 0.0<br/>samples = 4<br/>value = [4, 0]<br/>class = 0>, fillcolor="#e58139"] ;
42 -> 46 ;
47 [label=<gini = 0.0<br/>samples = 8<br/>value = [8, 0]<br/>class = 0>, fillcolor="#e58139"] ;
41 -> 47 ;
48 [label=<trestbps &le; 182.0<br/>gini = 0.096<br/>samples = 276<br/>value = [14, 262]<br/>class = 1>, fillcolor="#44a2e6"] ;
40 -> 48 ;
49 [label=<trestbps &le; 111.0<br/>gini = 0.077<br/>samples = 273<br/>value = [11, 262]<br/>class = 1>, fillcolor="#41a1e6"] ;
48 -> 49 ;
50 [label=<slope &le; 0.5<br/>gini = 0.298<br/>samples = 44<br/>value = [8, 36]<br/>class = 1>, fillcolor="#65b3eb"] ;
49 -> 50 ;
51 [label=<gini = 0.0<br/>samples = 4<br/>value = [4, 0]<br/>class = 0>, fillcolor="#e58139"] ;
50 -> 51 ;
52 [label=<thalach &le; 152.5<br/>gini = 0.18<br/>samples = 40<br/>value = [4, 36]<br/>class = 1>, fillcolor="#4fa8e8"] ;
50 -> 52 ;
53 [label=<thalach &le; 147.5<br/>gini = 0.5<br/>samples = 8<br/>value = [4, 4]<br/>class = 0>, fillcolor="#ffffff"] ;
52 -> 53 ;
54 [label=<gini = 0.0<br/>samples = 4<br/>value = [0, 4]<br/>class = 1>, fillcolor="#399de5"] ;
53 -> 54 ;
55 [label=<gini = 0.0<br/>samples = 4<br/>value = [4, 0]<br/>class = 0>, fillcolor="#e58139"] ;
53 -> 55 ;
56 [label=<gini = 0.0<br/>samples = 32<br/>value = [0, 32]<br/>class = 1>, fillcolor="#399de5"] ;
52 -> 56 ;
57 [label=<thal &le; 2.5<br/>gini = 0.026<br/>samples = 229<br/>value = [3, 226]<br/>class = 1>, fillcolor="#3c9ee5"] ;
49 -> 57 ;
58 [label=<gini = 0.0<br/>samples = 197<br/>value = [0, 197]<br/>class = 1>, fillcolor="#399de5"] ;
57 -> 58 ;
59 [label=<ca &le; 0.5<br/>gini = 0.17<br/>samples = 32<br/>value = [3, 29]<br/>class = 1>, fillcolor="#4da7e8"] ;
57 -> 59 ;
60 [label=<gini = 0.0<br/>samples = 29<br/>value = [0, 29]<br/>class = 1>, fillcolor="#399de5"] ;
59 -> 60 ;
61 [label=<gini = 0.0<br/>samples = 3<br/>value = [3, 0]<br/>class = 0>, fillcolor="#e58139"] ;
59 -> 61 ;
62 [label=<gini = 0.0<br/>samples = 3<br/>value = [3, 0]<br/>class = 0>, fillcolor="#e58139"] ;
48 -> 62 ;
63 [label=<gini = 0.0<br/>samples = 7<br/>value = [7, 0]<br/>class = 0>, fillcolor="#e58139"] ;
39 -> 63 ;
64 [label=<sex &le; 0.5<br/>gini = 0.488<br/>samples = 208<br/>value = [88, 120]<br/>class = 1>, fillcolor="#cae5f8"] ;
38 -> 64 ;
65 [label=<age &le; 62.5<br/>gini = 0.245<br/>samples = 77<br/>value = [11, 66]<br/>class = 1>, fillcolor="#5aade9"] ;
64 -> 65 ;
66 [label=<ca &le; 0.5<br/>gini = 0.483<br/>samples = 27<br/>value = [11, 16]<br/>class = 1>, fillcolor="#c1e0f7"] ;
65 -> 66 ;
67 [label=<gini = 0.0<br/>samples = 13<br/>value = [0, 13]<br/>class = 1>, fillcolor="#399de5"] ;
66 -> 67 ;
68 [label=<trestbps &le; 116.0<br/>gini = 0.337<br/>samples = 14<br/>value = [11, 3]<br/>class = 0>, fillcolor="#eca36f"] ;
66 -> 68 ;
69 [label=<gini = 0.0<br/>samples = 3<br/>value = [0, 3]<br/>class = 1>, fillcolor="#399de5"] ;
68 -> 69 ;
70 [label=<gini = 0.0<br/>samples = 11<br/>value = [11, 0]<br/>class = 0>, fillcolor="#e58139"] ;
68 -> 70 ;
71 [label=<gini = 0.0<br/>samples = 50<br/>value = [0, 50]<br/>class = 1>, fillcolor="#399de5"] ;
65 -> 71 ;
72 [label=<chol &le; 245.5<br/>gini = 0.485<br/>samples = 131<br/>value = [77, 54]<br/>class = 0>, fillcolor="#f7d9c4"] ;
64 -> 72 ;
73 [label=<oldpeak &le; 2.4<br/>gini = 0.485<br/>samples = 82<br/>value = [34, 48]<br/>class = 1>, fillcolor="#c5e2f7"] ;
72 -> 73 ;
74 [label=<ca &le; 0.5<br/>gini = 0.415<br/>samples = 68<br/>value = [20, 48]<br/>class = 1>, fillcolor="#8bc6f0"] ;
73 -> 74 ;
75 [label=<age &le; 65.5<br/>gini = 0.184<br/>samples = 39<br/>value = [4, 35]<br/>class = 1>, fillcolor="#50a8e8"] ;
74 -> 75 ;
76 [label=<gini = 0.0<br/>samples = 32<br/>value = [0, 32]<br/>class = 1>, fillcolor="#399de5"] ;
75 -> 76 ;
77 [label=<slope &le; 1.5<br/>gini = 0.49<br/>samples = 7<br/>value = [4, 3]<br/>class = 0>, fillcolor="#f8e0ce"] ;
75 -> 77 ;
78 [label=<gini = 0.0<br/>samples = 4<br/>value = [4, 0]<br/>class = 0>, fillcolor="#e58139"] ;
77 -> 78 ;
79 [label=<gini = 0.0<br/>samples = 3<br/>value = [0, 3]<br/>class = 1>, fillcolor="#399de5"] ;
77 -> 79 ;
80 [label=<ca &le; 2.5<br/>gini = 0.495<br/>samples = 29<br/>value = [16, 13]<br/>class = 0>, fillcolor="#fae7da"] ;
74 -> 80 ;
81 [label=<fbs &le; 0.5<br/>gini = 0.397<br/>samples = 22<br/>value = [16, 6]<br/>class = 0>, fillcolor="#efb083"] ;
80 -> 81 ;
82 [label=<gini = 0.0<br/>samples = 12<br/>value = [12, 0]<br/>class = 0>, fillcolor="#e58139"] ;
81 -> 82 ;
83 [label=<oldpeak &le; 1.2<br/>gini = 0.48<br/>samples = 10<br/>value = [4, 6]<br/>class = 1>, fillcolor="#bddef6"] ;
81 -> 83 ;
84 [label=<gini = 0.0<br/>samples = 6<br/>value = [0, 6]<br/>class = 1>, fillcolor="#399de5"] ;
83 -> 84 ;
85 [label=<gini = 0.0<br/>samples = 4<br/>value = [4, 0]<br/>class = 0>, fillcolor="#e58139"] ;
83 -> 85 ;
86 [label=<gini = 0.0<br/>samples = 7<br/>value = [0, 7]<br/>class = 1>, fillcolor="#399de5"] ;
80 -> 86 ;
87 [label=<gini = 0.0<br/>samples = 14<br/>value = [14, 0]<br/>class = 0>, fillcolor="#e58139"] ;
73 -> 87 ;
88 [label=<trestbps &le; 119.0<br/>gini = 0.215<br/>samples = 49<br/>value = [43, 6]<br/>class = 0>, fillcolor="#e99355"] ;
72 -> 88 ;
89 [label=<gini = 0.0<br/>samples = 3<br/>value = [0, 3]<br/>class = 1>, fillcolor="#399de5"] ;
88 -> 89 ;
90 [label=<oldpeak &le; 3.55<br/>gini = 0.122<br/>samples = 46<br/>value = [43, 3]<br/>class = 0>, fillcolor="#e78a47"] ;
88 -> 90 ;
91 [label=<gini = 0.0<br/>samples = 43<br/>value = [43, 0]<br/>class = 0>, fillcolor="#e58139"] ;
90 -> 91 ;
92 [label=<gini = 0.0<br/>samples = 3<br/>value = [0, 3]<br/>class = 1>, fillcolor="#399de5"] ;
90 -> 92 ;
}